digraph Tree {
node [shape=box, fontname="helvetica"] ;
edge [fontname="helvetica"] ;
0 [label="x[27] <= 0.142\ngini = 0.47\nsamples = 455\nvalue = [172, 283]"] ;
1 [label="x[2] <= 98.755\ngini = 0.147\nsamples = 300\nvalue = [24, 276]"] ;
0 -> 1 [labeldistance=2.5, labelangle=45, headlabel="True"] ;
2 [label="x[27] <= 0.136\ngini = 0.055\nsamples = 281\nvalue = [8, 273]"] ;
1 -> 2 ;
3 [label="x[13] <= 38.605\ngini = 0.036\nsamples = 272\nvalue = [5, 267]"] ;
2 -> 3 ;
4 [label="x[14] <= 0.003\ngini = 0.015\nsamples = 262\nvalue = [2, 260]"] ;
3 -> 4 ;
5 [label="x[21] <= 26.89\ngini = 0.278\nsamples = 6\nvalue = [1, 5]"] ;
4 -> 5 ;
6 [label="gini = 0.0\nsamples = 5\nvalue = [0, 5]"] ;
5 -> 6 ;
7 [label="gini = 0.0\nsamples = 1\nvalue = [1, 0]"] ;
5 -> 7 ;
8 [label="x[21] <= 33.27\ngini = 0.008\nsamples = 256\nvalue = [1, 255]"] ;
4 -> 8 ;
9 [label="gini = 0.0\nsamples = 238\nvalue = [0, 238]"] ;
8 -> 9 ;
10 [label="x[21] <= 33.56\ngini = 0.105\nsamples = 18\nvalue = [1, 17]"] ;
8 -> 10 ;
11 [label="gini = 0.0\nsamples = 1\nvalue = [1, 0]"] ;
10 -> 11 ;
12 [label="gini = 0.0\nsamples = 17\nvalue = [0, 17]"] ;
10 -> 12 ;
13 [label="x[15] <= 0.014\ngini = 0.42\nsamples = 10\nvalue = [3, 7]"] ;
3 -> 13 ;
14 [label="gini = 0.0\nsamples = 2\nvalue = [2, 0]"] ;
13 -> 14 ;
15 [label="x[27] <= 0.116\ngini = 0.219\nsamples = 8\nvalue = [1, 7]"] ;
13 -> 15 ;
16 [label="gini = 0.0\nsamples = 7\nvalue = [0, 7]"] ;
15 -> 16 ;
17 [label="gini = 0.0\nsamples = 1\nvalue = [1, 0]"] ;
15 -> 17 ;
18 [label="x[15] <= 0.027\ngini = 0.444\nsamples = 9\nvalue = [3, 6]"] ;
2 -> 18 ;
19 [label="x[29] <= 0.103\ngini = 0.375\nsamples = 4\nvalue = [3, 1]"] ;
18 -> 19 ;
20 [label="gini = 0.0\nsamples = 3\nvalue = [3, 0]"] ;
19 -> 20 ;
21 [label="gini = 0.0\nsamples = 1\nvalue = [0, 1]"] ;
19 -> 21 ;
22 [label="gini = 0.0\nsamples = 5\nvalue = [0, 5]"] ;
18 -> 22 ;
23 [label="x[21] <= 19.33\ngini = 0.266\nsamples = 19\nvalue = [16, 3]"] ;
1 -> 23 ;
24 [label="gini = 0.0\nsamples = 2\nvalue = [0, 2]"] ;
23 -> 24 ;
25 [label="x[24] <= 0.088\ngini = 0.111\nsamples = 17\nvalue = [16, 1]"] ;
23 -> 25 ;
26 [label="gini = 0.0\nsamples = 1\nvalue = [0, 1]"] ;
25 -> 26 ;
27 [label="gini = 0.0\nsamples = 16\nvalue = [16, 0]"] ;
25 -> 27 ;
28 [label="x[7] <= 0.05\ngini = 0.086\nsamples = 155\nvalue = [148, 7]"] ;
0 -> 28 [labeldistance=2.5, labelangle=-45, headlabel="False"] ;
29 [label="x[21] <= 29.28\ngini = 0.444\nsamples = 6\nvalue = [2, 4]"] ;
28 -> 29 ;
30 [label="gini = 0.0\nsamples = 4\nvalue = [0, 4]"] ;
29 -> 30 ;
31 [label="gini = 0.0\nsamples = 2\nvalue = [2, 0]"] ;
29 -> 31 ;
32 [label="x[24] <= 0.097\ngini = 0.039\nsamples = 149\nvalue = [146, 3]"] ;
28 -> 32 ;
33 [label="gini = 0.0\nsamples = 1\nvalue = [0, 1]"] ;
32 -> 33 ;
34 [label="x[13] <= 13.475\ngini = 0.027\nsamples = 148\nvalue = [146, 2]"] ;
32 -> 34 ;
35 [label="gini = 0.0\nsamples = 1\nvalue = [0, 1]"] ;
34 -> 35 ;
36 [label="x[1] <= 15.345\ngini = 0.014\nsamples = 147\nvalue = [146, 1]"] ;
34 -> 36 ;
37 [label="x[5] <= 0.109\ngini = 0.375\nsamples = 4\nvalue = [3, 1]"] ;
36 -> 37 ;
38 [label="gini = 0.0\nsamples = 1\nvalue = [0, 1]"] ;
37 -> 38 ;
39 [label="gini = 0.0\nsamples = 3\nvalue = [3, 0]"] ;
37 -> 39 ;
40 [label="gini = 0.0\nsamples = 143\nvalue = [143, 0]"] ;
36 -> 40 ;
}